double bias_lstm[400]= {6.734770257025957108e-03,
8.925535716116428375e-03,
2.784786000847816467e-02,
1.075823605060577393e-01,
3.400722146034240723e-02,
5.278450995683670044e-02,
6.835279613733291626e-02,
1.299928501248359680e-02,
2.347759157419204712e-02,
1.088502332568168640e-01,
1.679172180593013763e-02,
1.504687871783971786e-02,
6.798635423183441162e-02,
-1.134964730590581894e-02,
8.853279799222946167e-02,
-5.434951931238174438e-02,
1.376884728670120239e-01,
2.328140288591384888e-02,
6.689863651990890503e-02,
3.142733499407768250e-02,
6.376501917839050293e-02,
9.982766211032867432e-02,
8.412948995828628540e-02,
6.008085608482360840e-02,
-6.966771185398101807e-02,
7.535316795110702515e-02,
-1.943142153322696686e-02,
3.508656471967697144e-02,
8.679161220788955688e-02,
4.966983199119567871e-02,
8.120959624648094177e-03,
7.424909621477127075e-02,
3.390119969844818115e-02,
3.654107078909873962e-02,
7.426555454730987549e-02,
6.755650788545608521e-02,
-2.700366079807281494e-02,
8.226627856492996216e-02,
-2.916489541530609131e-02,
5.751994624733924866e-02,
5.728110298514366150e-02,
4.909956082701683044e-02,
3.785824403166770935e-02,
7.528809830546379089e-03,
-5.958449468016624451e-02,
5.434349551796913147e-02,
-6.039119511842727661e-02,
6.633231788873672485e-02,
7.425487786531448364e-02,
-3.585226833820343018e-02,
-8.044320344924926758e-02,
6.460434943437576294e-02,
5.955452471971511841e-02,
4.675959795713424683e-02,
5.627494305372238159e-02,
-6.654927041381597519e-03,
1.028790697455406189e-01,
6.371223926544189453e-02,
-5.058236792683601379e-02,
-2.492486964911222458e-03,
4.733408242464065552e-02,
-4.113523289561271667e-02,
1.071451455354690552e-01,
1.517024543136358261e-02,
8.188080042600631714e-02,
6.958478689193725586e-02,
6.213051453232765198e-02,
-4.637698829174041748e-02,
8.408157527446746826e-02,
9.475937485694885254e-02,
4.574857652187347412e-02,
3.609213978052139282e-02,
8.037949353456497192e-02,
1.043426916003227234e-01,
9.781897068023681641e-02,
2.944553643465042114e-02,
1.022844091057777405e-01,
-4.797323793172836304e-02,
-1.286027487367391586e-02,
7.540492713451385498e-02,
1.045046746730804443e-01,
5.946493148803710938e-02,
3.537210077047348022e-02,
4.681782051920890808e-02,
8.706612139940261841e-02,
8.590622991323471069e-02,
7.910051941871643066e-02,
7.199497520923614502e-02,
6.539916992187500000e-02,
-1.876739412546157837e-02,
3.546459227800369263e-02,
7.086925208568572998e-02,
7.149117439985275269e-02,
7.266884297132492065e-02,
5.439427867531776428e-02,
-8.856916800141334534e-03,
-7.537858095020055771e-03,
7.383442670106887817e-02,
5.812743678689002991e-03,
2.770289964973926544e-02,
8.970760703086853027e-01,
8.907182812690734863e-01,
8.886120319366455078e-01,
9.205547571182250977e-01,
8.805463314056396484e-01,
8.834384083747863770e-01,
8.600773215293884277e-01,
8.488678336143493652e-01,
8.981516361236572266e-01,
8.615181446075439453e-01,
8.986165523529052734e-01,
8.748813867568969727e-01,
8.921574354171752930e-01,
9.046611189842224121e-01,
8.868380188941955566e-01,
9.017802476882934570e-01,
9.456204771995544434e-01,
8.895536661148071289e-01,
8.863701820373535156e-01,
8.472718596458435059e-01,
8.635459542274475098e-01,
9.061809182167053223e-01,
8.417483568191528320e-01,
8.875334262847900391e-01,
9.194521307945251465e-01,
8.489183187484741211e-01,
8.972406387329101562e-01,
8.937125802040100098e-01,
8.563224077224731445e-01,
8.479009270668029785e-01,
8.299539089202880859e-01,
8.495576381683349609e-01,
9.040729999542236328e-01,
8.586452007293701172e-01,
8.559767603874206543e-01,
8.582348227500915527e-01,
9.017622470855712891e-01,
8.624716997146606445e-01,
8.803095817565917969e-01,
8.450124859809875488e-01,
8.716989755630493164e-01,
8.837784528732299805e-01,
9.004764556884765625e-01,
8.772259354591369629e-01,
8.618618249893188477e-01,
8.596574664115905762e-01,
8.765991926193237305e-01,
8.994794487953186035e-01,
8.758493065834045410e-01,
8.965173959732055664e-01,
9.262329936027526855e-01,
8.717471361160278320e-01,
8.825660347938537598e-01,
8.902409672737121582e-01,
8.939641714096069336e-01,
9.067630171775817871e-01,
8.598772287368774414e-01,
9.425625801086425781e-01,
8.712478280067443848e-01,
8.539020419120788574e-01,
8.808433413505554199e-01,
8.870050311088562012e-01,
8.546104431152343750e-01,
8.867222070693969727e-01,
8.892814517021179199e-01,
9.063243269920349121e-01,
9.058039188385009766e-01,
9.070310592651367188e-01,
8.767608404159545898e-01,
8.753576874732971191e-01,
8.870288133621215820e-01,
8.761199712753295898e-01,
8.866342902183532715e-01,
8.494228720664978027e-01,
8.616054654121398926e-01,
8.714714050292968750e-01,
9.278672337532043457e-01,
8.926912546157836914e-01,
8.854481577873229980e-01,
9.180432558059692383e-01,
8.800283074378967285e-01,
8.958845734596252441e-01,
8.495460748672485352e-01,
9.153029918670654297e-01,
8.859385848045349121e-01,
8.718287944793701172e-01,
8.882035017013549805e-01,
9.007275700569152832e-01,
8.973578214645385742e-01,
9.100616574287414551e-01,
9.152817130088806152e-01,
8.869466185569763184e-01,
8.777207732200622559e-01,
9.102460741996765137e-01,
8.672555088996887207e-01,
8.649114966392517090e-01,
8.949263095855712891e-01,
8.501352071762084961e-01,
8.935927748680114746e-01,
8.639743924140930176e-01,
4.515793989412486553e-06,
-2.156812843168154359e-05,
7.089987775543704629e-05,
-7.378592272289097309e-04,
-1.545463746879249811e-04,
-8.223535260185599327e-04,
-4.737367271445691586e-04,
1.906514808069914579e-04,
7.623428246006369591e-06,
-6.839443231001496315e-04,
1.576530776219442487e-04,
-2.291004057042300701e-05,
-1.689327182248234749e-04,
1.560821256134659052e-04,
-2.588669885881245136e-04,
1.612640771782025695e-04,
-8.091559866443276405e-04,
-9.943236364051699638e-05,
-7.530374568887054920e-05,
-4.860128392465412617e-04,
-2.914754732046276331e-04,
2.361068618483841419e-05,
-4.864286165684461594e-05,
-6.589052500203251839e-04,
2.994572860188782215e-04,
3.394932427909225225e-04,
-3.632794832810759544e-04,
-6.672986783087253571e-04,
-1.992587349377572536e-04,
-2.881962864194065332e-04,
-3.311428590677678585e-04,
2.685766667127609253e-04,
2.543714654166251421e-04,
-2.047745510935783386e-05,
-2.584600588306784630e-04,
-1.207079913001507521e-04,
8.267560042440891266e-05,
-2.310387644683942199e-04,
-5.508775575435720384e-05,
1.178908496513031423e-04,
-2.158732386305928230e-04,
4.167889128439128399e-04,
1.055851462297141552e-04,
-1.591785112395882607e-04,
1.813536800909787416e-04,
3.828512853942811489e-04,
-2.507175668142735958e-04,
-2.737590984907001257e-04,
4.549250297714024782e-05,
-1.809063542168587446e-04,
4.375411663204431534e-05,
-2.692930866032838821e-05,
2.254918217658996582e-04,
3.550830879248678684e-04,
-6.307949661277234554e-05,
8.041886030696332455e-05,
8.915463695302605629e-05,
-6.019631400704383850e-04,
1.630110491532832384e-04,
1.584296405781060457e-04,
3.128059906885027885e-04,
1.230482303071767092e-04,
4.064357926836237311e-05,
1.099565633921884000e-04,
-1.609046448720619082e-04,
-3.239284269511699677e-04,
6.275756750255823135e-04,
1.119712251238524914e-04,
6.304617272689938545e-06,
3.466031921561807394e-05,
2.330479765078052878e-04,
2.476439694873988628e-04,
-7.917839684523642063e-05,
5.303187645040452480e-04,
4.259588604327291250e-05,
-2.751787251327186823e-04,
-7.071467698551714420e-04,
6.090675015002489090e-06,
1.190547191072255373e-04,
-1.060783688444644213e-05,
-2.132061636075377464e-04,
6.192966829985380173e-04,
-9.770881297299638391e-05,
-2.055763034150004387e-04,
4.183558339718729258e-04,
1.806810905691236258e-04,
1.022208161884918809e-04,
-1.790874812286347151e-04,
3.630142891779541969e-04,
-2.696283627301454544e-05,
-2.043937856797128916e-04,
1.582535333000123501e-04,
6.708331056870520115e-05,
1.217357348650693893e-04,
-3.112731501460075378e-04,
-8.953476208262145519e-05,
7.549804286099970341e-05,
2.579036518000066280e-04,
1.457489270251244307e-04,
-2.258797758258879185e-05,
4.966134205460548401e-03,
9.252095595002174377e-03,
1.537206023931503296e-02,
8.952561765909194946e-02,
2.871683239936828613e-02,
2.847638726234436035e-02,
4.433355852961540222e-02,
3.650143742561340332e-03,
2.045570872724056244e-02,
7.973897457122802734e-02,
1.459362544119358063e-02,
1.925861462950706482e-02,
6.288068741559982300e-02,
-1.361273787915706635e-02,
7.402921468019485474e-02,
-5.482544377446174622e-02,
1.313230097293853760e-01,
2.678239904344081879e-02,
6.122160702943801880e-02,
1.647418737411499023e-02,
5.217511206865310669e-02,
7.932930439710617065e-02,
7.038634270429611206e-02,
4.926374182105064392e-02,
-7.640243321657180786e-02,
6.415885686874389648e-02,
-3.417544066905975342e-02,
2.575245685875415802e-02,
7.344306260347366333e-02,
3.579870611429214478e-02,
-1.135586178861558437e-03,
5.543998256325721741e-02,
2.632400207221508026e-02,
2.472143992781639099e-02,
5.398255586624145508e-02,
4.543863609433174133e-02,
-3.034809790551662445e-02,
7.040126621723175049e-02,
-3.391463309526443481e-02,
5.434675514698028564e-02,
2.502676658332347870e-02,
5.344013124704360962e-02,
3.345239907503128052e-02,
-2.160039031878113747e-03,
-6.084308400750160217e-02,
5.500732734799385071e-02,
-7.069209218025207520e-02,
5.503821745514869690e-02,
5.573238059878349304e-02,
-3.786226734519004822e-02,
-8.267726749181747437e-02,
5.262704566121101379e-02,
5.789994075894355774e-02,
3.282748907804489136e-02,
4.744991660118103027e-02,
-1.617088913917541504e-02,
9.147119522094726562e-02,
5.020591989159584045e-02,
-5.186145007610321045e-02,
-1.444746367633342743e-02,
3.482142835855484009e-02,
-4.211726784706115723e-02,
1.022654548287391663e-01,
1.007175352424383163e-02,
7.289934903383255005e-02,
7.294853031635284424e-02,
5.910708382725715637e-02,
-5.064306035637855530e-02,
7.805730402469635010e-02,
7.192783802747726440e-02,
4.250254482030868530e-02,
2.778640203177928925e-02,
6.904762238264083862e-02,
8.771967887878417969e-02,
7.805787026882171631e-02,
2.002931199967861176e-02,
1.021204963326454163e-01,
-5.460796877741813660e-02,
-1.989081874489784241e-02,
6.914999336004257202e-02,
8.101239800453186035e-02,
5.497181415557861328e-02,
3.374271094799041748e-02,
4.244823753833770752e-02,
7.572478801012039185e-02,
5.932155624032020569e-02,
6.681368499994277954e-02,
6.876271218061447144e-02,
6.525479257106781006e-02,
-2.804929204285144806e-02,
3.080125525593757629e-02,
6.192934885621070862e-02,
6.492698937654495239e-02,
6.548420339822769165e-02,
4.845712706446647644e-02,
-1.223095227032899857e-02,
-1.121479459106922150e-02,
4.680704325437545776e-02,
-5.001996760256588459e-04,
2.717129513621330261e-02};
